0.000000000000000000
-0.000000178408285985
-0.000000445312002652
0.000001012256076949
0.000002943500210098
0.000000000000000000
-0.000006780314886332
-0.000005776225732890
0.000007644847828673
0.000015872668123573
0.000000000000000000
-0.000024414492314422
-0.000018236174518323
0.000021745897108670
0.000041482908076863
0.000000000000000000
-0.000056070985583883
-0.000039823775685450
0.000045468090325949
0.000083511862041185
-0.000000000000000001
-0.000106011123650513
-0.000073338713214962
0.000081779756340946
0.000147039253294874
-0.000000000000000001
-0.000179879528561312
-0.000122447350530644
0.000134527088216984
0.000238582506094659
0.000000000000000001
-0.000284791214692564
-0.000191734522044334
0.000208484365277405
0.000366176322412589
-0.000000000000000002
-0.000429410779387552
-0.000286753418194209
0.000309405590677502
0.000539460515323682
-0.000000000000000007
-0.000624053737958602
-0.000414094116407070
0.000444100229655863
0.000769816533451649
-0.000000000000000003
-0.000880858867332388
-0.000581503913271111
0.000620569432609692
0.001070617271005614
0.000000000000000005
-0.001214109370246636
-0.000798112279746220
0.000848260807186290
0.001457693537563763
-0.000000000000000005
-0.001640828462705088
-0.001074846185457101
0.001138536603516547
0.001950187292192197
-0.000000000000000021
-0.002181859460526031
-0.001425180505424254
0.001505516949646386
0.002572084399745594
-0.000000000000000007
-0.002863799718346356
-0.001866480826459016
0.001967588909876644
0.003354959905961595
-0.000000000000000008
-0.003722477862966713
-0.002422425236391267
0.002550138574083720
0.004342971236184784
-0.000000000000000009
-0.004809352138414599
-0.003127491955120638
0.003290653542444619
0.005602264907431063
-0.000000000000000011
-0.006203807534451117
-0.004035682590690134
0.004248763910483352
0.007239734594725458
-0.000000000000000012
-0.008038414057386015
-0.005238736553687821
0.005527580489809238
0.009443642487541247
-0.000000000000000013
-0.010555956778240300
-0.006908218582935199
0.007324236913439679
0.012582426860459850
-0.000000000000000014
-0.014256629608455158
-0.009407809368123455
0.010069664313119701
0.017488809053790039
-0.000000000000000015
-0.020360604868409335
-0.013664675578246866
0.014917716817076031
0.026518535791763984
-0.000000000000000015
-0.032812133536438137
-0.022933180483744230
0.026330163474936889
0.049902019533385265
-0.000000000000000015
-0.075312930563898636
-0.062194395217371842
0.093434460622892290
0.302637963741026805
0.399999852267401868
0.302637963741026805
0.093434460622892290
-0.062194395217371842
-0.075312930563898636
-0.000000000000000015
0.049902019533385279
0.026330163474936889
-0.022933180483744230
-0.032812133536438137
-0.000000000000000015
0.026518535791763984
0.014917716817076031
-0.013664675578246870
-0.020360604868409335
-0.000000000000000015
0.017488809053790039
0.010069664313119703
-0.009407809368123457
-0.014256629608455158
-0.000000000000000014
0.012582426860459848
0.007324236913439679
-0.006908218582935199
-0.010555956778240302
-0.000000000000000013
0.009443642487541247
0.005527580489809238
-0.005238736553687821
-0.008038414057386015
-0.000000000000000012
0.007239734594725460
0.004248763910483352
-0.004035682590690135
-0.006203807534451117
-0.000000000000000011
0.005602264907431064
0.003290653542444619
-0.003127491955120638
-0.004809352138414599
-0.000000000000000009
0.004342971236184787
0.002550138574083722
-0.002422425236391269
-0.003722477862966715
-0.000000000000000008
0.003354959905961595
0.001967588909876644
-0.001866480826459016
-0.002863799718346359
-0.000000000000000007
0.002572084399745594
0.001505516949646386
-0.001425180505424254
-0.002181859460526032
-0.000000000000000021
0.001950187292192198
0.001138536603516547
-0.001074846185457101
-0.001640828462705088
-0.000000000000000005
0.001457693537563765
0.000848260807186290
-0.000798112279746220
-0.001214109370246636
0.000000000000000005
0.001070617271005615
0.000620569432609693
-0.000581503913271112
-0.000880858867332388
-0.000000000000000003
0.000769816533451651
0.000444100229655863
-0.000414094116407070
-0.000624053737958602
-0.000000000000000007
0.000539460515323682
0.000309405590677502
-0.000286753418194209
-0.000429410779387552
-0.000000000000000002
0.000366176322412589
0.000208484365277406
-0.000191734522044334
-0.000284791214692564
0.000000000000000001
0.000238582506094659
0.000134527088216984
-0.000122447350530644
-0.000179879528561312
-0.000000000000000001
0.000147039253294874
0.000081779756340946
-0.000073338713214962
-0.000106011123650513
-0.000000000000000001
0.000083511862041185
0.000045468090325949
-0.000039823775685450
-0.000056070985583884
0.000000000000000000
0.000041482908076863
0.000021745897108670
-0.000018236174518323
-0.000024414492314423
0.000000000000000000
0.000015872668123573
0.000007644847828673
-0.000005776225732890
-0.000006780314886332
0.000000000000000000
0.000002943500210098
0.000001012256076949
-0.000000445312002652
-0.000000178408285985
0.000000000000000000